<?xml version="1.0"?>
<opencv_storage>
<cascade>
  <stageType>BOOST</stageType>
  <featureType>LBP</featureType>
  <height>20</height>
  <width>20</width>
  <stageParams>
    <boostType>GAB</boostType>
    <minHitRate>9.9989998340606689e-01</minHitRate>
    <maxFalseAlarm>3.0000001192092896e-01</maxFalseAlarm>
    <weightTrimRate>9.4999999999999996e-01</weightTrimRate>
    <maxDepth>1</maxDepth>
    <maxWeakCount>100</maxWeakCount></stageParams>
  <featureParams>
    <maxCatCount>256</maxCatCount>
    <featSize>1</featSize></featureParams>
  <stageNum>10</stageNum>
  <stages>
    <!-- stage 0 -->
    <_>
      <maxWeakCount>2</maxWeakCount>
      <stageThreshold>4.0925394743680954e-02</stageThreshold>
      <weakClassifiers>
        <_>
          <internalNodes>
            0 -1 2 -16814290 -152113153 -16777218 -232587278 -134252697
            -142639265 -524289 -159907977</internalNodes>
          <leafValues>
            -9.4599997997283936e-01 9.8650002479553223e-01</leafValues></_>
        <_>
          <internalNodes>
            0 -1 30 -1879048192 0 16 268435456 0 0 32898 -1065189248</internalNodes>
          <leafValues>
            -9.2655044794082642e-01 9.8692542314529419e-01</leafValues></_></weakClassifiers></_>
    <!-- stage 1 -->
    <_>
      <maxWeakCount>3</maxWeakCount>
      <stageThreshold>-8.1957125663757324e-01</stageThreshold>
      <weakClassifiers>
        <_>
          <internalNodes>
            0 -1 5 -1359020033 -65545 -16777225 -33554441 -320012289
            -805306369 -840630288 -974063628</internalNodes>
          <leafValues>
            -9.1179710626602173e-01 9.3501096963882446e-01</leafValues></_>
        <_>
          <internalNodes>
            0 -1 4 -71575489 -669904381 471871742 -255708910 -2147413925
            -905801470 -201277237 -133965210</internalNodes>
          <leafValues>
            -8.2290929555892944e-01 9.1133880615234375e-01</leafValues></_>
        <_>
          <internalNodes>
            0 -1 33 -1409303813 -1431306325 1610591735 -536870913 -8213
            -1879572498 1155515637 -857735209</internalNodes>
          <leafValues>
            -8.1198716163635254e-01 9.1513520479202271e-01</leafValues></_></weakClassifiers></_>
    <!-- stage 2 -->
    <_>
      <maxWeakCount>4</maxWeakCount>
      <stageThreshold>-1.4947944879531860e+00</stageThreshold>
      <weakClassifiers>
        <_>
          <internalNodes>
            0 -1 12 -1917911555 -1073741825 -1 -536870953 212639228
            -1073741825 -1920954891 -841099819</internalNodes>
          <leafValues>
            -8.8636362552642822e-01 9.1747570037841797e-01</leafValues></_>
        <_>
          <internalNodes>
            0 -1 16 -787267369 -77397759 -787262855 -231599944
            1820413975 -878540800 -534672134 -115092400</internalNodes>
          <leafValues>
            -8.0146515369415283e-01 9.2052781581878662e-01</leafValues></_>
        <_>
          <internalNodes>
            0 -1 24 -1793588176 964774144 -1875812099 288702744
            202835424 -1694367608 411896061 -605206528</internalNodes>
          <leafValues>
            -7.5517749786376953e-01 8.9184498786926270e-01</leafValues></_>
        <_>
          <internalNodes>
            0 -1 23 -1173671371 -744287917 1261811 2140164409
            -2138568549 -913601918 2024427743 -98408416</internalNodes>
          <leafValues>
            -7.7378118038177490e-01 8.7668830156326294e-01</leafValues></_></weakClassifiers></_>
    <!-- stage 3 -->
    <_>
      <maxWeakCount>5</maxWeakCount>
      <stageThreshold>-7.2294026613235474e-01</stageThreshold>
      <weakClassifiers>
        <_>
          <internalNodes>
            0 -1 9 -75530241 -586874825 285217047 1360007440 -1732114053
            -1953824765 -2147473157 2131380586</internalNodes>
          <leafValues>
            -8.8429754972457886e-01 9.0272092819213867e-01</leafValues></_>
        <_>
          <internalNodes>
            0 -1 41 -1148481025 -1962737401 -1862172329 -585936751
            134875311 -1962770432 142739681 -578043695</internalNodes>
          <leafValues>
            -7.3347991704940796e-01 9.0888202190399170e-01</leafValues></_>
        <_>
          <internalNodes>
            0 -1 11 -609041989 -682557151 269537530 838864912 151169567
            -99974144 604014847 -211559781</internalNodes>
          <leafValues>
            -8.0448228120803833e-01 8.4024721384048462e-01</leafValues></_>
        <_>
          <internalNodes>
            0 -1 21 -1073867271 -1073741828 805289983 1073164276
            771702268 -2 -1107354115 -50373123</internalNodes>
          <leafValues>
            -7.3321771621704102e-01 8.7249022722244263e-01</leafValues></_>
        <_>
          <internalNodes>
            0 -1 35 -82634475 1526728731 -1862183589 -12560111
            -1740437303 -1442119166 -2004721169 -100478957</internalNodes>
          <leafValues>
            -8.1553274393081665e-01 8.1123399734497070e-01</leafValues></_></weakClassifiers></_>
    <!-- stage 4 -->
    <_>
      <maxWeakCount>6</maxWeakCount>
      <stageThreshold>-1.3778417110443115e+00</stageThreshold>
      <weakClassifiers>
        <_>
          <internalNodes>
            0 -1 15 -49353 -129 -262145 2134011518 -570460553 -137
            -32769 -30249392</internalNodes>
          <leafValues>
            -7.6754385232925415e-01 9.0508806705474854e-01</leafValues></_>
        <_>
          <internalNodes>
            0 -1 6 -319881217 -570491011 1694433277 -50331649 -318767108
            -50331649 -453181442 -459083744</internalNodes>
          <leafValues>
            -7.7391624450683594e-01 8.6371809244155884e-01</leafValues></_>
        <_>
          <internalNodes>
            0 -1 36 -8452747 -98433 -129 -1212547 -1 -32769 -134283265
            -312317065</internalNodes>
          <leafValues>
            -7.1416121721267700e-01 8.3870315551757813e-01</leafValues></_>
        <_>
          <internalNodes>
            0 -1 46 -1413796941 -1682227333 -1358962689 1006333949
            -1430583873 -1360265425 150969852 -1678516747</internalNodes>
          <leafValues>
            -7.6461929082870483e-01 8.1958276033401489e-01</leafValues></_>
        <_>
          <internalNodes>
            0 -1 34 -614738945 168886288 -1186735713 2048512721
            -1960826806 -2003304440 277071056 -1943799165</internalNodes>
          <leafValues>
            -7.2146248817443848e-01 8.2042080163955688e-01</leafValues></_>
        <_>
          <internalNodes>
            0 -1 7 -35652129 -669892596 1360072789 -679341808
            -1072164705 1921679362 -107839457 -130885037</internalNodes>
          <leafValues>
            -7.3127299547195435e-01 8.1099706888198853e-01</leafValues></_></weakClassifiers></_>
    <!-- stage 5 -->
    <_>
      <maxWeakCount>5</maxWeakCount>
      <stageThreshold>-8.9776533842086792e-01</stageThreshold>
      <weakClassifiers>
        <_>
          <internalNodes>
            0 -1 32 -1441541633 -1122561628 386060631 -242003583
            -2138847061 -1685387253 412319996 788222228</internalNodes>
          <leafValues>
            -9.0013498067855835e-01 8.6100023984909058e-01</leafValues></_>
        <_>
          <internalNodes>
            0 -1 44 -1086358987 2138275647 -1359003841 -9240780 -8488974
            -25165962 1589639167 -97321858</internalNodes>
          <leafValues>
            -7.3431998491287231e-01 8.4996283054351807e-01</leafValues></_>
        <_>
          <internalNodes>
            0 -1 10 -887110129 -2109657021 -736423787 -1341079536
            -1702278136 -1945501696 277975290 -666699589</internalNodes>
          <leafValues>
            -7.6723271608352661e-01 7.9007494449615479e-01</leafValues></_>
        <_>
          <internalNodes>
            0 -1 3 -627156513 524353809 -2122219145 -251572217
            -2011496306 -1652424704 -1736293750 -117188265</internalNodes>
          <leafValues>
            -7.5921922922134399e-01 7.5419872999191284e-01</leafValues></_>
        <_>
          <internalNodes>
            0 -1 29 -627845062 34607312 -1270640622 303566849 138969255
            -1474297832 -1599946500 -90450277</internalNodes>
          <leafValues>
            -7.4180531501770020e-01 7.4972361326217651e-01</leafValues></_></weakClassifiers></_>
    <!-- stage 6 -->
    <_>
      <maxWeakCount>5</maxWeakCount>
      <stageThreshold>-6.3503545522689819e-01</stageThreshold>
      <weakClassifiers>
        <_>
          <internalNodes>
            0 -1 31 -452464641 -447643391 -218115973 -258 -973078561
            1275068415 -1005874956 1088671815</internalNodes>
          <leafValues>
            -8.0701756477355957e-01 8.6720609664916992e-01</leafValues></_>
        <_>
          <internalNodes>
            0 -1 40 -172229963 -16711663 268501275 -251592703
            -2004746099 -1684371316 -2143051013 -937176957</internalNodes>
          <leafValues>
            -6.5258449316024780e-01 8.6941087245941162e-01</leafValues></_>
        <_>
          <internalNodes>
            0 -1 39 -1359544353 -1720193028 -1342177409 -328194
            -1342177714 -302120994 670564274 -1719675660</internalNodes>
          <leafValues>
            -6.4085561037063599e-01 8.4827315807342529e-01</leafValues></_>
        <_>
          <internalNodes>
            0 -1 14 -1073774593 -1222234305 -1 2131951487 -115202 -32770
            2147483615 -13959186</internalNodes>
          <leafValues>
            -6.7659902572631836e-01 7.8266793489456177e-01</leafValues></_>
        <_>
          <internalNodes>
            0 -1 16 -4485 -552512715 615717187 1883918352 -1308014749
            -1370796020 -2004170509 -681379190</internalNodes>
          <leafValues>
            -8.0234497785568237e-01 6.8275427818298340e-01</leafValues></_></weakClassifiers></_>
    <!-- stage 7 -->
    <_>
      <maxWeakCount>7</maxWeakCount>
      <stageThreshold>-9.0047752857208252e-01</stageThreshold>
      <weakClassifiers>
        <_>
          <internalNodes>
            0 -1 0 1879048191 805240831 1728052210 2147483647 1291845631
            -822083585 16250096 -134219785</internalNodes>
          <leafValues>
            -7.2768878936767578e-01 8.8124090433120728e-01</leafValues></_>
        <_>
          <internalNodes>
            0 -1 19 -604252673 -47120111 286327251 -133541614 -905969493
            -1685430142 149046491 2033777152</internalNodes>
          <leafValues>
            -8.8521468639373779e-01 7.4153774976730347e-01</leafValues></_>
        <_>
          <internalNodes>
            0 -1 28 -17891585 708816575 -7 -93323329 1744797551
            -1427112065 1442838007 -864026625</internalNodes>
          <leafValues>
            -7.2650790214538574e-01 8.1729346513748169e-01</leafValues></_>
        <_>
          <internalNodes>
            0 -1 42 -813480661 -946659327 -1072561965 823206657
            -2146828033 -852817894 -1064664605 -674248209</internalNodes>
          <leafValues>
            -7.5787997245788574e-01 7.2018373012542725e-01</leafValues></_>
        <_>
          <internalNodes>
            0 -1 1 -1390182357 -1962729183 -2129571557 269489154
            -1198587893 -922089460 -758611797 -905190774</internalNodes>
          <leafValues>
            -7.2805804014205933e-01 7.2785830497741699e-01</leafValues></_>
        <_>
          <internalNodes>
            0 -1 18 -1433480961 -1685550950 152240763 -49057580
            136095931 -1364492158 176390587 -862989087</internalNodes>
          <leafValues>
            -7.7498489618301392e-01 6.8818813562393188e-01</leafValues></_>
        <_>
          <internalNodes>
            0 -1 45 -1282182691 -250281807 1074085949 -788299638
            -1979023173 -33388416 657598 -553926655</internalNodes>
          <leafValues>
            -6.9872814416885376e-01 7.6587671041488647e-01</leafValues></_></weakClassifiers></_>
    <!-- stage 8 -->
    <_>
      <maxWeakCount>7</maxWeakCount>
      <stageThreshold>-1.0022544860839844e+00</stageThreshold>
      <weakClassifiers>
        <_>
          <internalNodes>
            0 -1 25 -513 1006632829 -1073742849 1056899071 -1073742850
            -1073741828 788493820 1073741308</internalNodes>
          <leafValues>
            -7.8869777917861938e-01 8.7004297971725464e-01</leafValues></_>
        <_>
          <internalNodes>
            0 -1 17 -849425998 -988561152 1124131058 -48955371
            1208090640 -1909849600 67113205 -539765611</internalNodes>
          <leafValues>
            -7.7942728996276855e-01 8.0449414253234863e-01</leafValues></_>
        <_>
          <internalNodes>
            0 -1 38 -135271689 -1476399105 -551560773 -715128851 -57
            -1896873985 -402655753 -671090697</internalNodes>
          <leafValues>
            -6.4627581834793091e-01 8.4787905216217041e-01</leafValues></_>
        <_>
          <internalNodes>
            0 -1 37 -48237739 -585956077 33800691 -134147821 -2147448797
            -1475346304 -637515377 -738147962</internalNodes>
          <leafValues>
            -8.7993192672729492e-01 6.2505143880844116e-01</leafValues></_>
        <_>
          <internalNodes>
            0 -1 27 -667168259 -1622077423 268439899 1569738810
            142639359 -1996257270 -2071871307 1479790793</internalNodes>
          <leafValues>
            -8.2490783929824829e-01 6.1171823740005493e-01</leafValues></_>
        <_>
          <internalNodes>
            0 -1 20 -820911649 -720699376 269205973 806359216 -284557310
            -360185062 -394116353 -652025810</internalNodes>
          <leafValues>
            -7.5217634439468384e-01 7.0477426052093506e-01</leafValues></_>
        <_>
          <internalNodes>
            0 -1 26 -252244939 -651165568 -921647905 -786867175
            -2010609653 -364314584 -1600094015 -367996807</internalNodes>
          <leafValues>
            -7.5552451610565186e-01 7.2755300998687744e-01</leafValues></_></weakClassifiers></_>
    <!-- stage 9 -->
    <_>
      <maxWeakCount>5</maxWeakCount>
      <stageThreshold>-6.0480952262878418e-01</stageThreshold>
      <weakClassifiers>
        <_>
          <internalNodes>
            0 -1 8 -65 2147483647 -1345 1919090686 -8392929 -8388609 -65
            1664286711</internalNodes>
          <leafValues>
            -6.4366632699966431e-01 8.9972698688507080e-01</leafValues></_>
        <_>
          <internalNodes>
            0 -1 13 -1056751241 -1048047344 16777237 285245440 128 8200
            8359 -779369849</internalNodes>
          <leafValues>
            -7.0580250024795532e-01 8.5085517168045044e-01</leafValues></_>
        <_>
          <internalNodes>
            0 -1 47 -2071965517 285212673 8650768 268501504 -2012643326
            -2013265920 1048646 -637353952</internalNodes>
          <leafValues>
            -7.5724124908447266e-01 8.2869154214859009e-01</leafValues></_>
        <_>
          <internalNodes>
            0 -1 22 -1878847345 -2147479551 65 275251201 167772297
            -1743126512 8421520 2064154760</internalNodes>
          <leafValues>
            -8.8202565908432007e-01 7.3850411176681519e-01</leafValues></_>
        <_>
          <internalNodes>
            0 -1 43 -922316661 -2013265920 176 353959936 1207959566 0
            1048778 -545030142</internalNodes>
          <leafValues>
            -7.1612471342086792e-01 8.5077399015426636e-01</leafValues></_></weakClassifiers></_></stages>
  <features>
    <_>
      <rect>
        0 3 3 2</rect></_>
    <_>
      <rect>
        0 12 2 2</rect></_>
    <_>
      <rect>
        0 14 4 1</rect></_>
    <_>
      <rect>
        1 1 3 5</rect></_>
    <_>
      <rect>
        1 11 3 2</rect></_>
    <_>
      <rect>
        2 1 2 4</rect></_>
    <_>
      <rect>
        2 2 1 4</rect></_>
    <_>
      <rect>
        2 6 2 3</rect></_>
    <_>
      <rect>
        2 9 2 2</rect></_>
    <_>
      <rect>
        2 10 3 3</rect></_>
    <_>
      <rect>
        2 12 1 1</rect></_>
    <_>
      <rect>
        2 13 2 1</rect></_>
    <_>
      <rect>
        3 1 2 3</rect></_>
    <_>
      <rect>
        3 3 2 1</rect></_>
    <_>
      <rect>
        3 11 1 2</rect></_>
    <_>
      <rect>
        3 14 3 2</rect></_>
    <_>
      <rect>
        3 15 2 1</rect></_>
    <_>
      <rect>
        4 2 2 1</rect></_>
    <_>
      <rect>
        4 3 1 2</rect></_>
    <_>
      <rect>
        4 8 2 3</rect></_>
    <_>
      <rect>
        4 16 2 1</rect></_>
    <_>
      <rect>
        5 1 1 2</rect></_>
    <_>
      <rect>
        5 7 4 2</rect></_>
    <_>
      <rect>
        5 14 2 2</rect></_>
    <_>
      <rect>
        6 2 1 1</rect></_>
    <_>
      <rect>
        6 10 4 3</rect></_>
    <_>
      <rect>
        9 2 2 2</rect></_>
    <_>
      <rect>
        9 8 3 3</rect></_>
    <_>
      <rect>
        10 17 3 1</rect></_>
    <_>
      <rect>
        11 2 3 1</rect></_>
    <_>
      <rect>
        11 3 3 1</rect></_>
    <_>
      <rect>
        11 10 3 2</rect></_>
    <_>
      <rect>
        11 11 2 3</rect></_>
    <_>
      <rect>
        11 13 3 2</rect></_>
    <_>
      <rect>
        11 16 2 1</rect></_>
    <_>
      <rect>
        12 1 2 3</rect></_>
    <_>
      <rect>
        13 1 1 3</rect></_>
    <_>
      <rect>
        13 1 2 4</rect></_>
    <_>
      <rect>
        13 15 2 1</rect></_>
    <_>
      <rect>
        13 16 1 1</rect></_>
    <_>
      <rect>
        14 1 2 5</rect></_>
    <_>
      <rect>
        14 10 2 3</rect></_>
    <_>
      <rect>
        14 14 2 1</rect></_>
    <_>
      <rect>
        14 16 2 1</rect></_>
    <_>
      <rect>
        15 3 1 2</rect></_>
    <_>
      <rect>
        15 10 1 3</rect></_>
    <_>
      <rect>
        16 12 1 2</rect></_>
    <_>
      <rect>
        17 3 1 3</rect></_></features></cascade>
</opencv_storage>
