<?xml version="1.0"?>
<opencv_storage>
<cascade>
  <stageType>BOOST</stageType>
  <featureType>HAAR</featureType>
  <height>20</height>
  <width>20</width>
  <stageParams>
    <boostType>GAB</boostType>
    <minHitRate>9.9989998340606689e-01</minHitRate>
    <maxFalseAlarm>3.0000001192092896e-01</maxFalseAlarm>
    <weightTrimRate>9.4999999999999996e-01</weightTrimRate>
    <maxDepth>1</maxDepth>
    <maxWeakCount>100</maxWeakCount></stageParams>
  <featureParams>
    <maxCatCount>0</maxCatCount>
    <featSize>1</featSize>
    <mode>ALL</mode></featureParams>
  <stageNum>11</stageNum>
  <stages>
    <!-- stage 0 -->
    <_>
      <maxWeakCount>4</maxWeakCount>
      <stageThreshold>-7.0468020439147949e-01</stageThreshold>
      <weakClassifiers>
        <_>
          <internalNodes>
            0 -1 15 -1.2513048946857452e-02</internalNodes>
          <leafValues>
            9.6330761909484863e-01 -5.0282484292984009e-01</leafValues></_>
        <_>
          <internalNodes>
            0 -1 107 2.2143351088743657e-05</internalNodes>
          <leafValues>
            -5.2283424139022827e-01 9.3123209476470947e-01</leafValues></_>
        <_>
          <internalNodes>
            0 -1 27 -1.8342241673963144e-05</internalNodes>
          <leafValues>
            8.9249998331069946e-01 -5.8379155397415161e-01</leafValues></_>
        <_>
          <internalNodes>
            0 -1 78 -2.0333836801000871e-05</internalNodes>
          <leafValues>
            9.2149806022644043e-01 -5.4929596185684204e-01</leafValues></_></weakClassifiers></_>
    <!-- stage 1 -->
    <_>
      <maxWeakCount>6</maxWeakCount>
      <stageThreshold>-7.8123360872268677e-01</stageThreshold>
      <weakClassifiers>
        <_>
          <internalNodes>
            0 -1 71 9.2129893600940704e-03</internalNodes>
          <leafValues>
            -5.1691728830337524e-01 9.0193086862564087e-01</leafValues></_>
        <_>
          <internalNodes>
            0 -1 84 -3.0996751040220261e-02</internalNodes>
          <leafValues>
            -7.1470576524734497e-01 8.3483874797821045e-01</leafValues></_>
        <_>
          <internalNodes>
            0 -1 7 1.2477099895477295e-02</internalNodes>
          <leafValues>
            -6.0070198774337769e-01 8.6791330575942993e-01</leafValues></_>
        <_>
          <internalNodes>
            0 -1 4 -3.3296460751444101e-03</internalNodes>
          <leafValues>
            7.3246133327484131e-01 -7.6949900388717651e-01</leafValues></_>
        <_>
          <internalNodes>
            0 -1 85 -1.8042583763599396e-01</internalNodes>
          <leafValues>
            -4.4189560413360596e-01 9.6154481172561646e-01</leafValues></_>
        <_>
          <internalNodes>
            0 -1 56 8.7994873523712158e-02</internalNodes>
          <leafValues>
            -6.2497740983963013e-01 9.6422970294952393e-01</leafValues></_></weakClassifiers></_>
    <!-- stage 2 -->
    <_>
      <maxWeakCount>8</maxWeakCount>
      <stageThreshold>-1.0689808130264282e+00</stageThreshold>
      <weakClassifiers>
        <_>
          <internalNodes>
            0 -1 83 1.5509048476815224e-02</internalNodes>
          <leafValues>
            -2.4671532213687897e-01 9.1955924034118652e-01</leafValues></_>
        <_>
          <internalNodes>
            0 -1 13 6.2849436653777957e-04</internalNodes>
          <leafValues>
            -3.8973122835159302e-01 9.0006804466247559e-01</leafValues></_>
        <_>
          <internalNodes>
            0 -1 57 -5.4268015082925558e-04</internalNodes>
          <leafValues>
            7.9489427804946899e-01 -4.8854792118072510e-01</leafValues></_>
        <_>
          <internalNodes>
            0 -1 52 7.6918932609260082e-04</internalNodes>
          <leafValues>
            -4.5607006549835205e-01 8.4891915321350098e-01</leafValues></_>
        <_>
          <internalNodes>
            0 -1 28 -6.9516943767666817e-04</internalNodes>
          <leafValues>
            6.9095927476882935e-01 -6.0298448801040649e-01</leafValues></_>
        <_>
          <internalNodes>
            0 -1 37 -7.5869652209803462e-04</internalNodes>
          <leafValues>
            9.1028714179992676e-01 -3.8671767711639404e-01</leafValues></_>
        <_>
          <internalNodes>
            0 -1 19 -1.4026795979589224e-03</internalNodes>
          <leafValues>
            9.3490940332412720e-01 -3.7700465321540833e-01</leafValues></_>
        <_>
          <internalNodes>
            0 -1 80 1.2303304392844439e-03</internalNodes>
          <leafValues>
            -5.8142787218093872e-01 6.5815103054046631e-01</leafValues></_></weakClassifiers></_>
    <!-- stage 3 -->
    <_>
      <maxWeakCount>10</maxWeakCount>
      <stageThreshold>-1.2004114389419556e+00</stageThreshold>
      <weakClassifiers>
        <_>
          <internalNodes>
            0 -1 65 4.2362412204965949e-04</internalNodes>
          <leafValues>
            7.8681117296218872e-01 -8.4615385532379150e-01</leafValues></_>
        <_>
          <internalNodes>
            0 -1 23 -2.6085458230227232e-03</internalNodes>
          <leafValues>
            8.4082144498825073e-01 -4.9351423978805542e-01</leafValues></_>
        <_>
          <internalNodes>
            0 -1 59 -9.7258586902171373e-04</internalNodes>
          <leafValues>
            6.4677113294601440e-01 -5.1171022653579712e-01</leafValues></_>
        <_>
          <internalNodes>
            0 -1 0 4.2948879301548004e-02</internalNodes>
          <leafValues>
            -4.3246752023696899e-01 8.1151556968688965e-01</leafValues></_>
        <_>
          <internalNodes>
            0 -1 33 -2.7459436655044556e-01</internalNodes>
          <leafValues>
            9.8098212480545044e-01 -4.0801510214805603e-01</leafValues></_>
        <_>
          <internalNodes>
            0 -1 18 -1.4640284702181816e-02</internalNodes>
          <leafValues>
            8.1469500064849854e-01 -4.1539129614830017e-01</leafValues></_>
        <_>
          <internalNodes>
            0 -1 95 7.0129352388903499e-04</internalNodes>
          <leafValues>
            -4.2923563718795776e-01 6.9347369670867920e-01</leafValues></_>
        <_>
          <internalNodes>
            0 -1 9 6.7695760726928711e-01</internalNodes>
          <leafValues>
            -2.8339734673500061e-01 9.4425946474075317e-01</leafValues></_>
        <_>
          <internalNodes>
            0 -1 61 5.3817152976989746e-02</internalNodes>
          <leafValues>
            -3.3657968044281006e-01 9.4017118215560913e-01</leafValues></_>
        <_>
          <internalNodes>
            0 -1 108 -1.4865573029965162e-03</internalNodes>
          <leafValues>
            5.6748586893081665e-01 -6.6064900159835815e-01</leafValues></_></weakClassifiers></_>
    <!-- stage 4 -->
    <_>
      <maxWeakCount>10</maxWeakCount>
      <stageThreshold>-1.7586565017700195e+00</stageThreshold>
      <weakClassifiers>
        <_>
          <internalNodes>
            0 -1 11 -2.6477611064910889e-01</internalNodes>
          <leafValues>
            -9.5555555820465088e-01 7.8834080696105957e-01</leafValues></_>
        <_>
          <internalNodes>
            0 -1 100 3.3889552578330040e-03</internalNodes>
          <leafValues>
            -5.7776027917861938e-01 6.9852381944656372e-01</leafValues></_>
        <_>
          <internalNodes>
            0 -1 44 1.6779990401118994e-03</internalNodes>
          <leafValues>
            -4.8154655098915100e-01 7.1053445339202881e-01</leafValues></_>
        <_>
          <internalNodes>
            0 -1 47 -1.2058443576097488e-01</internalNodes>
          <leafValues>
            -3.2494911551475525e-01 8.8542801141738892e-01</leafValues></_>
        <_>
          <internalNodes>
            0 -1 21 4.0429198741912842e-01</internalNodes>
          <leafValues>
            -5.4569160938262939e-01 8.4753000736236572e-01</leafValues></_>
        <_>
          <internalNodes>
            0 -1 14 -1.1226452188566327e-03</internalNodes>
          <leafValues>
            7.2654414176940918e-01 -3.5446211695671082e-01</leafValues></_>
        <_>
          <internalNodes>
            0 -1 20 -1.6594810876995325e-03</internalNodes>
          <leafValues>
            5.0188702344894409e-01 -5.8816754817962646e-01</leafValues></_>
        <_>
          <internalNodes>
            0 -1 102 6.0058936476707458e-02</internalNodes>
          <leafValues>
            -3.6709570884704590e-01 8.1590056419372559e-01</leafValues></_>
        <_>
          <internalNodes>
            0 -1 88 -1.3208496570587158e-01</internalNodes>
          <leafValues>
            8.7218439579010010e-01 -3.6704829335212708e-01</leafValues></_>
        <_>
          <internalNodes>
            0 -1 38 -1.3973701745271683e-02</internalNodes>
          <leafValues>
            7.0402204990386963e-01 -3.3349770307540894e-01</leafValues></_></weakClassifiers></_>
    <!-- stage 5 -->
    <_>
      <maxWeakCount>14</maxWeakCount>
      <stageThreshold>-1.1118043661117554e+00</stageThreshold>
      <weakClassifiers>
        <_>
          <internalNodes>
            0 -1 75 4.0122233331203461e-03</internalNodes>
          <leafValues>
            7.6354682445526123e-01 -7.6779025793075562e-01</leafValues></_>
        <_>
          <internalNodes>
            0 -1 79 -1.5493143582716584e-03</internalNodes>
          <leafValues>
            7.5693035125732422e-01 -4.1192179918289185e-01</leafValues></_>
        <_>
          <internalNodes>
            0 -1 105 1.7236057901754975e-03</internalNodes>
          <leafValues>
            -5.5379104614257813e-01 6.0390824079513550e-01</leafValues></_>
        <_>
          <internalNodes>
            0 -1 6 -3.3940426073968410e-03</internalNodes>
          <leafValues>
            5.9242492914199829e-01 -4.4982713460922241e-01</leafValues></_>
        <_>
          <internalNodes>
            0 -1 89 5.1271647214889526e-02</internalNodes>
          <leafValues>
            -2.8021296858787537e-01 9.3667906522750854e-01</leafValues></_>
        <_>
          <internalNodes>
            0 -1 39 -5.8630062267184258e-04</internalNodes>
          <leafValues>
            4.6348476409912109e-01 -7.1913927793502808e-01</leafValues></_>
        <_>
          <internalNodes>
            0 -1 69 -1.7972398549318314e-02</internalNodes>
          <leafValues>
            -3.6125919222831726e-01 7.7427136898040771e-01</leafValues></_>
        <_>
          <internalNodes>
            0 -1 51 -1.3720819726586342e-02</internalNodes>
          <leafValues>
            8.2243132591247559e-01 -4.2733371257781982e-01</leafValues></_>
        <_>
          <internalNodes>
            0 -1 26 -6.3023925758898258e-04</internalNodes>
          <leafValues>
            6.9378107786178589e-01 -4.0236926078796387e-01</leafValues></_>
        <_>
          <internalNodes>
            0 -1 1 -1.1689130067825317e+00</internalNodes>
          <leafValues>
            -9.9496930837631226e-01 3.1660747528076172e-01</leafValues></_>
        <_>
          <internalNodes>
            0 -1 30 1.5968746738508344e-03</internalNodes>
          <leafValues>
            -4.7445407509803772e-01 5.7383155822753906e-01</leafValues></_>
        <_>
          <internalNodes>
            0 -1 99 -6.1265369877219200e-03</internalNodes>
          <leafValues>
            8.1067526340484619e-01 -3.7633797526359558e-01</leafValues></_>
        <_>
          <internalNodes>
            0 -1 40 7.5762905180454254e-04</internalNodes>
          <leafValues>
            -2.9059770703315735e-01 7.5361579656600952e-01</leafValues></_>
        <_>
          <internalNodes>
            0 -1 43 2.1041023137513548e-04</internalNodes>
          <leafValues>
            -3.1247165799140930e-01 6.3690614700317383e-01</leafValues></_></weakClassifiers></_>
    <!-- stage 6 -->
    <_>
      <maxWeakCount>16</maxWeakCount>
      <stageThreshold>-1.3534942865371704e+00</stageThreshold>
      <weakClassifiers>
        <_>
          <internalNodes>
            0 -1 76 2.3440783843398094e-03</internalNodes>
          <leafValues>
            7.4988913536071777e-01 -7.7959185838699341e-01</leafValues></_>
        <_>
          <internalNodes>
            0 -1 25 -2.3709712550044060e-03</internalNodes>
          <leafValues>
            5.3949004411697388e-01 -6.7010498046875000e-01</leafValues></_>
        <_>
          <internalNodes>
            0 -1 62 -3.4788429737091064e-02</internalNodes>
          <leafValues>
            6.7788082361221313e-01 -4.3169581890106201e-01</leafValues></_>
        <_>
          <internalNodes>
            0 -1 16 -2.6839529164135456e-04</internalNodes>
          <leafValues>
            3.5152500867843628e-01 -7.2583740949630737e-01</leafValues></_>
        <_>
          <internalNodes>
            0 -1 77 -3.9285235106945038e-04</internalNodes>
          <leafValues>
            -8.3760482072830200e-01 2.7313518524169922e-01</leafValues></_>
        <_>
          <internalNodes>
            0 -1 110 -3.4109577536582947e-02</internalNodes>
          <leafValues>
            -7.8680586814880371e-01 2.3077292740345001e-01</leafValues></_>
        <_>
          <internalNodes>
            0 -1 101 -1.4264141209423542e-03</internalNodes>
          <leafValues>
            5.7423186302185059e-01 -4.2607125639915466e-01</leafValues></_>
        <_>
          <internalNodes>
            0 -1 96 1.4943931018933654e-03</internalNodes>
          <leafValues>
            -4.1009375452995300e-01 7.1488839387893677e-01</leafValues></_>
        <_>
          <internalNodes>
            0 -1 86 2.7103301137685776e-02</internalNodes>
          <leafValues>
            -2.6511630415916443e-01 8.2609647512435913e-01</leafValues></_>
        <_>
          <internalNodes>
            0 -1 67 6.5548062324523926e-02</internalNodes>
          <leafValues>
            -2.4472753703594208e-01 8.8840758800506592e-01</leafValues></_>
        <_>
          <internalNodes>
            0 -1 72 -3.8815132575109601e-04</internalNodes>
          <leafValues>
            6.0924977064132690e-01 -4.3633654713630676e-01</leafValues></_>
        <_>
          <internalNodes>
            0 -1 109 2.4519478902220726e-03</internalNodes>
          <leafValues>
            -4.0447491407394409e-01 5.5328983068466187e-01</leafValues></_>
        <_>
          <internalNodes>
            0 -1 68 1.5641296282410622e-02</internalNodes>
          <leafValues>
            -2.6361909508705139e-01 8.3936643600463867e-01</leafValues></_>
        <_>
          <internalNodes>
            0 -1 45 5.9360582381486893e-03</internalNodes>
          <leafValues>
            -3.7560084462165833e-01 6.1191010475158691e-01</leafValues></_>
        <_>
          <internalNodes>
            0 -1 87 -1.0529977735131979e-03</internalNodes>
          <leafValues>
            -8.8337159156799316e-01 2.7727824449539185e-01</leafValues></_>
        <_>
          <internalNodes>
            0 -1 92 -1.4117297250777483e-03</internalNodes>
          <leafValues>
            6.3825339078903198e-01 -3.4974750876426697e-01</leafValues></_></weakClassifiers></_>
    <!-- stage 7 -->
    <_>
      <maxWeakCount>10</maxWeakCount>
      <stageThreshold>-1.2432194948196411e+00</stageThreshold>
      <weakClassifiers>
        <_>
          <internalNodes>
            0 -1 10 -5.3183376789093018e-01</internalNodes>
          <leafValues>
            -9.5754718780517578e-01 7.4431818723678589e-01</leafValues></_>
        <_>
          <internalNodes>
            0 -1 12 3.4082129132002592e-03</internalNodes>
          <leafValues>
            -4.3838521838188171e-01 7.7321404218673706e-01</leafValues></_>
        <_>
          <internalNodes>
            0 -1 103 -1.9665993750095367e-03</internalNodes>
          <leafValues>
            7.0662575960159302e-01 -4.2831122875213623e-01</leafValues></_>
        <_>
          <internalNodes>
            0 -1 29 -5.3793590515851974e-02</internalNodes>
          <leafValues>
            9.2076110839843750e-01 -2.6401811838150024e-01</leafValues></_>
        <_>
          <internalNodes>
            0 -1 8 3.5078659653663635e-01</internalNodes>
          <leafValues>
            -4.0048730373382568e-01 8.4801703691482544e-01</leafValues></_>
        <_>
          <internalNodes>
            0 -1 60 -1.4919971581548452e-03</internalNodes>
          <leafValues>
            4.9244502186775208e-01 -5.2091497182846069e-01</leafValues></_>
        <_>
          <internalNodes>
            0 -1 50 -5.4923892021179199e-03</internalNodes>
          <leafValues>
            6.4030003547668457e-01 -3.4043064713478088e-01</leafValues></_>
        <_>
          <internalNodes>
            0 -1 81 -6.3952863216400146e-02</internalNodes>
          <leafValues>
            -4.3122515082359314e-01 8.5884588956832886e-01</leafValues></_>
        <_>
          <internalNodes>
            0 -1 48 5.5792070925235748e-02</internalNodes>
          <leafValues>
            -2.6322865486145020e-01 7.5579798221588135e-01</leafValues></_>
        <_>
          <internalNodes>
            0 -1 2 -9.3519501388072968e-03</internalNodes>
          <leafValues>
            5.5231225490570068e-01 -4.4693255424499512e-01</leafValues></_></weakClassifiers></_>
    <!-- stage 8 -->
    <_>
      <maxWeakCount>13</maxWeakCount>
      <stageThreshold>-1.2001175880432129e+00</stageThreshold>
      <weakClassifiers>
        <_>
          <internalNodes>
            0 -1 32 -8.5993669927120209e-03</internalNodes>
          <leafValues>
            -7.3831772804260254e-01 7.6035833358764648e-01</leafValues></_>
        <_>
          <internalNodes>
            0 -1 63 -7.4210860766470432e-03</internalNodes>
          <leafValues>
            -2.7104136347770691e-01 8.3699166774749756e-01</leafValues></_>
        <_>
          <internalNodes>
            0 -1 41 -7.3556485585868359e-04</internalNodes>
          <leafValues>
            6.0461378097534180e-01 -5.5171388387680054e-01</leafValues></_>
        <_>
          <internalNodes>
            0 -1 90 -3.8561550900340080e-03</internalNodes>
          <leafValues>
            5.8925944566726685e-01 -4.0867871046066284e-01</leafValues></_>
        <_>
          <internalNodes>
            0 -1 35 -4.0561872720718384e-01</internalNodes>
          <leafValues>
            -9.8586213588714600e-01 2.0787219703197479e-01</leafValues></_>
        <_>
          <internalNodes>
            0 -1 22 1.8625862430781126e-03</internalNodes>
          <leafValues>
            -3.7665295600891113e-01 7.4994504451751709e-01</leafValues></_>
        <_>
          <internalNodes>
            0 -1 73 1.5536610968410969e-02</internalNodes>
          <leafValues>
            -2.8481626510620117e-01 8.0190342664718628e-01</leafValues></_>
        <_>
          <internalNodes>
            0 -1 64 -4.5647658407688141e-02</internalNodes>
          <leafValues>
            -2.3912954330444336e-01 9.0491312742233276e-01</leafValues></_>
        <_>
          <internalNodes>
            0 -1 74 9.0227812528610229e-02</internalNodes>
          <leafValues>
            -3.0817994475364685e-01 8.5889399051666260e-01</leafValues></_>
        <_>
          <internalNodes>
            0 -1 3 -1.3205013237893581e-03</internalNodes>
          <leafValues>
            5.5347567796707153e-01 -4.0914952754974365e-01</leafValues></_>
        <_>
          <internalNodes>
            0 -1 36 8.1081032752990723e-02</internalNodes>
          <leafValues>
            -2.7737924456596375e-01 7.7130240201950073e-01</leafValues></_>
        <_>
          <internalNodes>
            0 -1 91 -5.0714164972305298e-02</internalNodes>
          <leafValues>
            8.4838521480560303e-01 -2.9520356655120850e-01</leafValues></_>
        <_>
          <internalNodes>
            0 -1 42 -2.3907902650535107e-03</internalNodes>
          <leafValues>
            6.4630180597305298e-01 -4.0153241157531738e-01</leafValues></_></weakClassifiers></_>
    <!-- stage 9 -->
    <_>
      <maxWeakCount>15</maxWeakCount>
      <stageThreshold>-1.1256196498870850e+00</stageThreshold>
      <weakClassifiers>
        <_>
          <internalNodes>
            0 -1 58 4.5817564241588116e-03</internalNodes>
          <leafValues>
            7.6949155330657959e-01 -7.0434784889221191e-01</leafValues></_>
        <_>
          <internalNodes>
            0 -1 24 1.7139616829808801e-05</internalNodes>
          <leafValues>
            -4.8313787579536438e-01 7.5260287523269653e-01</leafValues></_>
        <_>
          <internalNodes>
            0 -1 82 -2.8146523982286453e-03</internalNodes>
          <leafValues>
            -7.2700095176696777e-01 4.8588240146636963e-01</leafValues></_>
        <_>
          <internalNodes>
            0 -1 98 1.1557968333363533e-02</internalNodes>
          <leafValues>
            -4.9825730919837952e-01 6.3266426324844360e-01</leafValues></_>
        <_>
          <internalNodes>
            0 -1 70 -3.0898943543434143e-02</internalNodes>
          <leafValues>
            -2.8364148736000061e-01 9.7711682319641113e-01</leafValues></_>
        <_>
          <internalNodes>
            0 -1 49 -1.3065496459603310e-03</internalNodes>
          <leafValues>
            5.3726220130920410e-01 -5.2900642156600952e-01</leafValues></_>
        <_>
          <internalNodes>
            0 -1 46 1.5962589532136917e-03</internalNodes>
          <leafValues>
            -4.9917134642601013e-01 5.7612353563308716e-01</leafValues></_>
        <_>
          <internalNodes>
            0 -1 94 3.6610302049666643e-04</internalNodes>
          <leafValues>
            -4.8158183693885803e-01 6.7115676403045654e-01</leafValues></_>
        <_>
          <internalNodes>
            0 -1 5 1.2674218742176890e-03</internalNodes>
          <leafValues>
            -4.6465903520584106e-01 6.1068743467330933e-01</leafValues></_>
        <_>
          <internalNodes>
            0 -1 31 1.7877750098705292e-02</internalNodes>
          <leafValues>
            3.4042477607727051e-01 -8.2694375514984131e-01</leafValues></_>
        <_>
          <internalNodes>
            0 -1 17 1.7076216172426939e-03</internalNodes>
          <leafValues>
            -3.6104771494865417e-01 7.9059147834777832e-01</leafValues></_>
        <_>
          <internalNodes>
            0 -1 34 1.1103311553597450e-02</internalNodes>
          <leafValues>
            -4.0002316236495972e-01 7.0248723030090332e-01</leafValues></_>
        <_>
          <internalNodes>
            0 -1 55 -4.8985518515110016e-02</internalNodes>
          <leafValues>
            -3.0822500586509705e-01 9.0267503261566162e-01</leafValues></_>
        <_>
          <internalNodes>
            0 -1 97 -1.8425457528792322e-04</internalNodes>
          <leafValues>
            7.2755646705627441e-01 -3.7920364737510681e-01</leafValues></_>
        <_>
          <internalNodes>
            0 -1 106 1.2652570381760597e-02</internalNodes>
          <leafValues>
            -2.3368997871875763e-01 9.0225112438201904e-01</leafValues></_></weakClassifiers></_>
    <!-- stage 10 -->
    <_>
      <maxWeakCount>5</maxWeakCount>
      <stageThreshold>-7.2899782657623291e-01</stageThreshold>
      <weakClassifiers>
        <_>
          <internalNodes>
            0 -1 66 1.4415539335459471e-03</internalNodes>
          <leafValues>
            8.4529614448547363e-01 -9.1942447423934937e-01</leafValues></_>
        <_>
          <internalNodes>
            0 -1 93 3.3517079427838326e-03</internalNodes>
          <leafValues>
            -5.7938015460968018e-01 9.5652794837951660e-01</leafValues></_>
        <_>
          <internalNodes>
            0 -1 53 5.1404116675257683e-03</internalNodes>
          <leafValues>
            7.4022942781448364e-01 -7.4355781078338623e-01</leafValues></_>
        <_>
          <internalNodes>
            0 -1 54 5.5791418999433517e-03</internalNodes>
          <leafValues>
            6.3786327838897705e-01 -1.</leafValues></_>
        <_>
          <internalNodes>
            0 -1 104 1.8660455680219457e-05</internalNodes>
          <leafValues>
            -6.0828590393066406e-01 1.</leafValues></_></weakClassifiers></_></stages>
  <features>
    <_>
      <rects>
        <_>
          0 0 12 8 -1.</_>
        <_>
          0 0 6 4 2.</_>
        <_>
          6 4 6 4 2.</_></rects>
      <tilted>0</tilted></_>
    <_>
      <rects>
        <_>
          0 0 18 8 -1.</_>
        <_>
          6 0 6 8 2.</_></rects>
      <tilted>0</tilted></_>
    <_>
      <rects>
        <_>
          0 6 4 6 -1.</_>
        <_>
          0 9 4 3 2.</_></rects>
      <tilted>0</tilted></_>
    <_>
      <rects>
        <_>
          0 7 16 2 -1.</_>
        <_>
          0 8 16 1 2.</_></rects>
      <tilted>0</tilted></_>
    <_>
      <rects>
        <_>
          0 7 20 4 -1.</_>
        <_>
          0 9 20 2 2.</_></rects>
      <tilted>0</tilted></_>
    <_>
      <rects>
        <_>
          0 9 1 8 -1.</_>
        <_>
          0 13 1 4 2.</_></rects>
      <tilted>0</tilted></_>
    <_>
      <rects>
        <_>
          0 10 8 4 -1.</_>
        <_>
          0 10 4 2 2.</_>
        <_>
          4 12 4 2 2.</_></rects>
      <tilted>0</tilted></_>
    <_>
      <rects>
        <_>
          1 1 10 10 -1.</_>
        <_>
          1 1 5 5 2.</_>
        <_>
          6 6 5 5 2.</_></rects>
      <tilted>0</tilted></_>
    <_>
      <rects>
        <_>
          1 1 18 9 -1.</_>
        <_>
          7 4 6 3 9.</_></rects>
      <tilted>0</tilted></_>
    <_>
      <rects>
        <_>
          1 1 18 18 -1.</_>
        <_>
          7 7 6 6 9.</_></rects>
      <tilted>0</tilted></_>
    <_>
      <rects>
        <_>
          1 3 18 4 -1.</_>
        <_>
          7 3 6 4 2.</_></rects>
      <tilted>0</tilted></_>
    <_>
      <rects>
        <_>
          1 4 18 2 -1.</_>
        <_>
          7 4 6 2 2.</_></rects>
      <tilted>0</tilted></_>
    <_>
      <rects>
        <_>
          1 5 8 4 -1.</_>
        <_>
          1 5 4 2 2.</_>
        <_>
          5 7 4 2 2.</_></rects>
      <tilted>0</tilted></_>
    <_>
      <rects>
        <_>
          1 6 8 2 -1.</_>
        <_>
          1 6 4 1 2.</_>
        <_>
          5 7 4 1 2.</_></rects>
      <tilted>0</tilted></_>
    <_>
      <rects>
        <_>
          1 6 5 2 -1.</_>
        <_>
          1 7 5 1 2.</_></rects>
      <tilted>0</tilted></_>
    <_>
      <rects>
        <_>
          1 6 12 14 -1.</_>
        <_>
          1 6 6 7 2.</_>
        <_>
          7 13 6 7 2.</_></rects>
      <tilted>0</tilted></_>
    <_>
      <rects>
        <_>
          1 7 2 12 -1.</_>
        <_>
          1 10 2 6 2.</_></rects>
      <tilted>0</tilted></_>
    <_>
      <rects>
        <_>
          1 10 4 4 -1.</_>
        <_>
          1 10 2 2 2.</_>
        <_>
          3 12 2 2 2.</_></rects>
      <tilted>0</tilted></_>
    <_>
      <rects>
        <_>
          1 14 12 6 -1.</_>
        <_>
          1 14 6 3 2.</_>
        <_>
          7 17 6 3 2.</_></rects>
      <tilted>0</tilted></_>
    <_>
      <rects>
        <_>
          1 15 6 2 -1.</_>
        <_>
          1 15 3 1 2.</_>
        <_>
          4 16 3 1 2.</_></rects>
      <tilted>0</tilted></_>
    <_>
      <rects>
        <_>
          1 19 10 1 -1.</_>
        <_>
          6 19 5 1 2.</_></rects>
      <tilted>0</tilted></_>
    <_>
      <rects>
        <_>
          2 1 18 12 -1.</_>
        <_>
          8 5 6 4 9.</_></rects>
      <tilted>0</tilted></_>
    <_>
      <rects>
        <_>
          2 11 2 4 -1.</_>
        <_>
          2 11 1 2 2.</_>
        <_>
          3 13 1 2 2.</_></rects>
      <tilted>0</tilted></_>
    <_>
      <rects>
        <_>
          2 12 6 4 -1.</_>
        <_>
          2 12 3 2 2.</_>
        <_>
          5 14 3 2 2.</_></rects>
      <tilted>0</tilted></_>
    <_>
      <rects>
        <_>
          2 14 3 2 -1.</_>
        <_>
          2 15 3 1 2.</_></rects>
      <tilted>0</tilted></_>
    <_>
      <rects>
        <_>
          2 18 14 2 -1.</_>
        <_>
          9 18 7 2 2.</_></rects>
      <tilted>0</tilted></_>
    <_>
      <rects>
        <_>
          3 4 4 2 -1.</_>
        <_>
          3 4 2 1 2.</_>
        <_>
          5 5 2 1 2.</_></rects>
      <tilted>0</tilted></_>
    <_>
      <rects>
        <_>
          3 8 14 2 -1.</_>
        <_>
          3 9 14 1 2.</_></rects>
      <tilted>0</tilted></_>
    <_>
      <rects>
        <_>
          3 9 13 2 -1.</_>
        <_>
          3 10 13 1 2.</_></rects>
      <tilted>0</tilted></_>
    <_>
      <rects>
        <_>
          3 15 16 2 -1.</_>
        <_>
          7 15 8 2 2.</_></rects>
      <tilted>0</tilted></_>
    <_>
      <rects>
        <_>
          4 0 2 10 -1.</_>
        <_>
          4 0 1 5 2.</_>
        <_>
          5 5 1 5 2.</_></rects>
      <tilted>0</tilted></_>
    <_>
      <rects>
        <_>
          4 0 6 4 -1.</_>
        <_>
          4 0 6 2 2.</_></rects>
      <tilted>1</tilted></_>
    <_>
      <rects>
        <_>
          4 0 14 4 -1.</_>
        <_>
          4 0 14 2 2.</_></rects>
      <tilted>1</tilted></_>
    <_>
      <rects>
        <_>
          4 0 14 20 -1.</_>
        <_>
          4 5 14 10 2.</_></rects>
      <tilted>0</tilted></_>
    <_>
      <rects>
        <_>
          4 1 6 6 -1.</_>
        <_>
          4 1 3 3 2.</_>
        <_>
          7 4 3 3 2.</_></rects>
      <tilted>0</tilted></_>
    <_>
      <rects>
        <_>
          4 1 3 18 -1.</_>
        <_>
          4 7 3 6 2.</_></rects>
      <tilted>0</tilted></_>
    <_>
      <rects>
        <_>
          4 1 16 2 -1.</_>
        <_>
          8 5 8 2 2.</_></rects>
      <tilted>1</tilted></_>
    <_>
      <rects>
        <_>
          4 3 2 4 -1.</_>
        <_>
          4 3 1 2 2.</_>
        <_>
          5 5 1 2 2.</_></rects>
      <tilted>0</tilted></_>
    <_>
      <rects>
        <_>
          4 8 2 10 -1.</_>
        <_>
          4 13 2 5 2.</_></rects>
      <tilted>0</tilted></_>
    <_>
      <rects>
        <_>
          4 8 15 2 -1.</_>
        <_>
          4 9 15 1 2.</_></rects>
      <tilted>0</tilted></_>
    <_>
      <rects>
        <_>
          4 11 2 6 -1.</_>
        <_>
          4 11 1 3 2.</_>
        <_>
          5 14 1 3 2.</_></rects>
      <tilted>0</tilted></_>
    <_>
      <rects>
        <_>
          4 11 7 2 -1.</_>
        <_>
          4 12 7 1 2.</_></rects>
      <tilted>0</tilted></_>
    <_>
      <rects>
        <_>
          4 14 14 2 -1.</_>
        <_>
          4 15 14 1 2.</_></rects>
      <tilted>0</tilted></_>
    <_>
      <rects>
        <_>
          4 15 2 2 -1.</_>
        <_>
          4 15 1 1 2.</_>
        <_>
          5 16 1 1 2.</_></rects>
      <tilted>0</tilted></_>
    <_>
      <rects>
        <_>
          5 0 2 10 -1.</_>
        <_>
          5 0 1 5 2.</_>
        <_>
          6 5 1 5 2.</_></rects>
      <tilted>0</tilted></_>
    <_>
      <rects>
        <_>
          5 2 6 4 -1.</_>
        <_>
          5 2 3 2 2.</_>
        <_>
          8 4 3 2 2.</_></rects>
      <tilted>0</tilted></_>
    <_>
      <rects>
        <_>
          5 3 2 6 -1.</_>
        <_>
          6 3 1 6 2.</_></rects>
      <tilted>0</tilted></_>
    <_>
      <rects>
        <_>
          5 6 11 9 -1.</_>
        <_>
          5 9 11 3 2.</_></rects>
      <tilted>0</tilted></_>
    <_>
      <rects>
        <_>
          5 9 7 4 -1.</_>
        <_>
          5 9 7 2 2.</_></rects>
      <tilted>1</tilted></_>
    <_>
      <rects>
        <_>
          5 9 14 2 -1.</_>
        <_>
          5 10 14 1 2.</_></rects>
      <tilted>0</tilted></_>
    <_>
      <rects>
        <_>
          5 14 4 4 -1.</_>
        <_>
          5 16 4 2 2.</_></rects>
      <tilted>0</tilted></_>
    <_>
      <rects>
        <_>
          5 15 9 4 -1.</_>
        <_>
          5 17 9 2 2.</_></rects>
      <tilted>0</tilted></_>
    <_>
      <rects>
        <_>
          6 1 2 6 -1.</_>
        <_>
          6 1 1 3 2.</_>
        <_>
          7 4 1 3 2.</_></rects>
      <tilted>0</tilted></_>
    <_>
      <rects>
        <_>
          6 1 4 4 -1.</_>
        <_>
          7 1 2 4 2.</_></rects>
      <tilted>0</tilted></_>
    <_>
      <rects>
        <_>
          6 3 1 2 -1.</_>
        <_>
          6 3 1 1 2.</_></rects>
      <tilted>1</tilted></_>
    <_>
      <rects>
        <_>
          6 4 8 3 -1.</_>
        <_>
          6 5 8 1 2.</_></rects>
      <tilted>0</tilted></_>
    <_>
      <rects>
        <_>
          6 7 7 6 -1.</_>
        <_>
          6 7 7 3 2.</_></rects>
      <tilted>1</tilted></_>
    <_>
      <rects>
        <_>
          6 7 14 2 -1.</_>
        <_>
          6 8 14 1 2.</_></rects>
      <tilted>0</tilted></_>
    <_>
      <rects>
        <_>
          6 9 3 6 -1.</_>
        <_>
          7 11 1 2 9.</_></rects>
      <tilted>0</tilted></_>
    <_>
      <rects>
        <_>
          7 0 4 4 -1.</_>
        <_>
          9 0 2 4 2.</_></rects>
      <tilted>0</tilted></_>
    <_>
      <rects>
        <_>
          7 0 4 6 -1.</_>
        <_>
          9 0 2 6 2.</_></rects>
      <tilted>0</tilted></_>
    <_>
      <rects>
        <_>
          7 1 4 7 -1.</_>
        <_>
          7 1 2 7 2.</_></rects>
      <tilted>1</tilted></_>
    <_>
      <rects>
        <_>
          7 2 12 8 -1.</_>
        <_>
          7 2 6 4 2.</_>
        <_>
          13 6 6 4 2.</_></rects>
      <tilted>0</tilted></_>
    <_>
      <rects>
        <_>
          7 4 1 3 -1.</_>
        <_>
          7 5 1 1 2.</_></rects>
      <tilted>0</tilted></_>
    <_>
      <rects>
        <_>
          7 8 6 9 -1.</_>
        <_>
          9 8 2 9 2.</_></rects>
      <tilted>0</tilted></_>
    <_>
      <rects>
        <_>
          7 9 6 6 -1.</_>
        <_>
          7 12 6 3 2.</_></rects>
      <tilted>0</tilted></_>
    <_>
      <rects>
        <_>
          7 9 10 2 -1.</_>
        <_>
          7 10 10 1 2.</_></rects>
      <tilted>0</tilted></_>
    <_>
      <rects>
        <_>
          8 0 4 7 -1.</_>
        <_>
          8 0 2 7 2.</_></rects>
      <tilted>1</tilted></_>
    <_>
      <rects>
        <_>
          8 1 3 6 -1.</_>
        <_>
          9 2 1 6 3.</_></rects>
      <tilted>1</tilted></_>
    <_>
      <rects>
        <_>
          8 3 3 3 -1.</_>
        <_>
          8 4 3 1 2.</_></rects>
      <tilted>0</tilted></_>
    <_>
      <rects>
        <_>
          8 4 4 9 -1.</_>
        <_>
          8 7 4 3 2.</_></rects>
      <tilted>0</tilted></_>
    <_>
      <rects>
        <_>
          8 6 12 14 -1.</_>
        <_>
          8 6 6 7 2.</_>
        <_>
          14 13 6 7 2.</_></rects>
      <tilted>0</tilted></_>
    <_>
      <rects>
        <_>
          8 13 5 2 -1.</_>
        <_>
          8 14 5 1 2.</_></rects>
      <tilted>0</tilted></_>
    <_>
      <rects>
        <_>
          8 16 10 4 -1.</_>
        <_>
          8 16 5 2 2.</_>
        <_>
          13 18 5 2 2.</_></rects>
      <tilted>0</tilted></_>
    <_>
      <rects>
        <_>
          9 1 6 8 -1.</_>
        <_>
          11 3 2 8 3.</_></rects>
      <tilted>1</tilted></_>
    <_>
      <rects>
        <_>
          9 8 6 3 -1.</_>
        <_>
          11 9 2 1 9.</_></rects>
      <tilted>0</tilted></_>
    <_>
      <rects>
        <_>
          9 10 4 2 -1.</_>
        <_>
          10 11 2 2 2.</_></rects>
      <tilted>1</tilted></_>
    <_>
      <rects>
        <_>
          9 12 2 2 -1.</_>
        <_>
          9 12 2 1 2.</_></rects>
      <tilted>1</tilted></_>
    <_>
      <rects>
        <_>
          10 1 6 6 -1.</_>
        <_>
          10 1 3 3 2.</_>
        <_>
          13 4 3 3 2.</_></rects>
      <tilted>0</tilted></_>
    <_>
      <rects>
        <_>
          10 2 4 4 -1.</_>
        <_>
          10 2 2 2 2.</_>
        <_>
          12 4 2 2 2.</_></rects>
      <tilted>0</tilted></_>
    <_>
      <rects>
        <_>
          10 2 10 1 -1.</_>
        <_>
          15 2 5 1 2.</_></rects>
      <tilted>0</tilted></_>
    <_>
      <rects>
        <_>
          10 5 6 7 -1.</_>
        <_>
          12 5 2 7 2.</_></rects>
      <tilted>0</tilted></_>
    <_>
      <rects>
        <_>
          10 9 5 4 -1.</_>
        <_>
          9 10 5 2 2.</_></rects>
      <tilted>1</tilted></_>
    <_>
      <rects>
        <_>
          10 10 10 10 -1.</_>
        <_>
          10 10 5 5 2.</_>
        <_>
          15 15 5 5 2.</_></rects>
      <tilted>0</tilted></_>
    <_>
      <rects>
        <_>
          10 19 6 1 -1.</_>
        <_>
          12 19 2 1 2.</_></rects>
      <tilted>0</tilted></_>
    <_>
      <rects>
        <_>
          11 0 4 15 -1.</_>
        <_>
          11 5 4 5 2.</_></rects>
      <tilted>0</tilted></_>
    <_>
      <rects>
        <_>
          11 1 4 9 -1.</_>
        <_>
          12 2 2 9 2.</_></rects>
      <tilted>1</tilted></_>
    <_>
      <rects>
        <_>
          11 7 2 3 -1.</_>
        <_>
          10 8 2 1 3.</_></rects>
      <tilted>1</tilted></_>
    <_>
      <rects>
        <_>
          12 0 6 20 -1.</_>
        <_>
          12 5 6 10 2.</_></rects>
      <tilted>0</tilted></_>
    <_>
      <rects>
        <_>
          13 1 1 12 -1.</_>
        <_>
          10 4 1 6 2.</_></rects>
      <tilted>1</tilted></_>
    <_>
      <rects>
        <_>
          13 2 4 6 -1.</_>
        <_>
          13 2 2 3 2.</_>
        <_>
          15 5 2 3 2.</_></rects>
      <tilted>0</tilted></_>
    <_>
      <rects>
        <_>
          13 2 5 8 -1.</_>
        <_>
          13 6 5 4 2.</_></rects>
      <tilted>0</tilted></_>
    <_>
      <rects>
        <_>
          13 13 4 4 -1.</_>
        <_>
          13 13 2 2 2.</_>
        <_>
          15 15 2 2 2.</_></rects>
      <tilted>0</tilted></_>
    <_>
      <rects>
        <_>
          13 17 6 3 -1.</_>
        <_>
          16 17 3 3 2.</_></rects>
      <tilted>0</tilted></_>
    <_>
      <rects>
        <_>
          14 1 6 4 -1.</_>
        <_>
          14 2 6 2 2.</_></rects>
      <tilted>0</tilted></_>
    <_>
      <rects>
        <_>
          14 2 3 4 -1.</_>
        <_>
          14 3 3 2 2.</_></rects>
      <tilted>0</tilted></_>
    <_>
      <rects>
        <_>
          14 3 4 4 -1.</_>
        <_>
          14 3 2 2 2.</_>
        <_>
          16 5 2 2 2.</_></rects>
      <tilted>0</tilted></_>
    <_>
      <rects>
        <_>
          14 5 2 1 -1.</_>
        <_>
          15 5 1 1 2.</_></rects>
      <tilted>0</tilted></_>
    <_>
      <rects>
        <_>
          14 7 6 12 -1.</_>
        <_>
          14 7 3 6 2.</_>
        <_>
          17 13 3 6 2.</_></rects>
      <tilted>0</tilted></_>
    <_>
      <rects>
        <_>
          14 13 6 6 -1.</_>
        <_>
          14 13 3 3 2.</_>
        <_>
          17 16 3 3 2.</_></rects>
      <tilted>0</tilted></_>
    <_>
      <rects>
        <_>
          14 16 6 4 -1.</_>
        <_>
          17 16 3 4 2.</_></rects>
      <tilted>0</tilted></_>
    <_>
      <rects>
        <_>
          15 1 2 8 -1.</_>
        <_>
          15 1 1 4 2.</_>
        <_>
          16 5 1 4 2.</_></rects>
      <tilted>0</tilted></_>
    <_>
      <rects>
        <_>
          16 0 1 16 -1.</_>
        <_>
          12 4 1 8 2.</_></rects>
      <tilted>1</tilted></_>
    <_>
      <rects>
        <_>
          16 7 4 4 -1.</_>
        <_>
          16 7 2 2 2.</_>
        <_>
          18 9 2 2 2.</_></rects>
      <tilted>0</tilted></_>
    <_>
      <rects>
        <_>
          16 13 4 2 -1.</_>
        <_>
          16 13 4 1 2.</_></rects>
      <tilted>1</tilted></_>
    <_>
      <rects>
        <_>
          16 15 4 4 -1.</_>
        <_>
          16 17 4 2 2.</_></rects>
      <tilted>0</tilted></_>
    <_>
      <rects>
        <_>
          17 11 3 5 -1.</_>
        <_>
          18 12 1 5 3.</_></rects>
      <tilted>1</tilted></_>
    <_>
      <rects>
        <_>
          17 14 3 4 -1.</_>
        <_>
          17 16 3 2 2.</_></rects>
      <tilted>0</tilted></_>
    <_>
      <rects>
        <_>
          18 2 1 14 -1.</_>
        <_>
          18 9 1 7 2.</_></rects>
      <tilted>0</tilted></_>
    <_>
      <rects>
        <_>
          19 10 1 8 -1.</_>
        <_>
          19 14 1 4 2.</_></rects>
      <tilted>0</tilted></_>
    <_>
      <rects>
        <_>
          19 11 1 6 -1.</_>
        <_>
          19 13 1 2 2.</_></rects>
      <tilted>0</tilted></_></features></cascade>
</opencv_storage>
